SVM-light Version V6.02
0 # kernel type
3 # kernel parameter -d 
1 # kernel parameter -g 
1 # kernel parameter -s 
1 # kernel parameter -r 
empty# kernel parameter -u 
20000 # highest feature index 
11175 # number of training documents 
4 # number of support vectors plus 1 
-0.99999985 # threshold b, each following line is a SV (starting with alpha*y)
3.8041778039264372e-010 7:3 8:1 9:1 15:1 18:1 20:3 23:1 28:1 56:1 78:1 82:1 87:2 88:1 125:1 135:1 136:1 147:1 173:1 174:1 193:2 201:1 225:1 237:1 260:1 352:1 367:1 374:2 419:1 472:1 679:1 841:1 870:1 902:1 1668:1 1826:1 1837:1 1847:1 1995:1 2468:1 3608:1 10609:1 11780:1 13625:1 #
4.9993151967746946e-010 1:1 2:7 3:7 4:2 5:1 7:3 8:2 9:2 11:1 13:1 17:1 18:1 22:2 24:2 25:1 26:1 27:1 30:2 31:2 38:1 39:1 43:1 45:1 54:1 55:1 58:1 68:1 69:2 70:1 71:1 78:1 80:2 82:1 94:1 96:1 99:2 101:1 107:1 113:1 116:1 119:1 120:1 141:1 144:1 147:1 154:1 156:1 157:1 164:1 171:1 190:1 193:2 204:4 208:1 211:1 215:1 218:1 223:1 232:1 254:1 255:1 269:2 279:1 282:1 304:1 312:1 313:1 376:1 394:2 436:1 525:1 528:1 556:1 557:1 621:1 638:1 711:1 721:1 769:1 828:1 859:1 917:1 974:1 987:1 1008:1 1081:1 1120:1 1142:1 1174:1 1224:1 1280:1 1374:1 1460:1 1482:1 1779:1 1867:1 2046:1 2214:2 2231:1 2303:1 2569:1 2613:2 2897:1 3005:1 3053:1 3112:1 3118:1 3327:1 3354:1 3419:1 4317:1 4967:1 5179:1 6567:1 7716:1 8458:1 9652:1 9673:1 11547:1 13131:1 #
1.7756256920521137e-009 1:3 4:2 6:1 7:1 8:2 9:5 10:1 11:4 12:1 13:4 15:7 16:2 17:1 21:2 24:1 28:1 32:1 35:1 41:1 45:1 47:2 52:1 54:4 55:1 57:1 58:4 65:1 72:1 80:2 81:1 82:1 84:1 86:1 87:9 88:1 104:1 113:1 122:1 125:1 126:1 136:1 153:1 155:2 158:1 167:3 172:1 182:2 190:1 193:11 227:1 229:1 234:1 240:1 246:1 274:3 295:1 311:1 315:1 316:1 322:1 386:2 388:1 390:1 395:1 396:1 418:1 421:3 446:1 458:1 459:1 463:1 490:1 514:1 563:3 627:1 670:1 672:1 673:1 692:1 769:2 789:1 795:2 809:1 855:1 862:1 864:1 949:1 960:1 978:1 983:1 1087:1 1135:1 1306:1 1378:1 1521:1 1730:1 1750:1 1855:1 1865:1 1997:1 2015:1 2036:1 2196:1 2245:1 2338:1 2433:1 2440:1 2580:1 2674:1 2893:1 2930:1 3012:1 3387:1 4302:1 5600:1 5899:1 6163:1 6392:1 8090:1 10496:1 13746:1 16922:1 17661:1 18511:1 18936:1 #
